digraph Tree {
node [shape=box] ;
0 [label="CfbWinner <= -0.5\ngini = 0.4999\nsamples = 702\nvalue = [345, 357]"] ;
1 [label="Loser/tie <= 18.5\ngini = 0.3768\nsamples = 421\nvalue = [315, 106]"] ;
0 -> 1 [labeldistance=2.5, labelangle=45, headlabel="True"] ;
2 [label="TMAX <= 61.5\ngini = 0.3922\nsamples = 295\nvalue = [216, 79]"] ;
1 -> 2 ;
3 [label="PRCP <= 0.5717\ngini = 0.487\nsamples = 124\nvalue = [72, 52]"] ;
2 -> 3 ;
4 [label="TMIN <= 29.6667\ngini = 0.395\nsamples = 96\nvalue = [70, 26]"] ;
3 -> 4 ;
5 [label="NflGame <= 0.5\ngini = 0.4992\nsamples = 25\nvalue = [13, 12]"] ;
4 -> 5 ;
6 [label="Day <= 3.5\ngini = 0.4835\nsamples = 22\nvalue = [13, 9]"] ;
5 -> 6 ;
7 [label="gini = 0.0\nsamples = 9\nvalue = [9, 0]"] ;
6 -> 7 ;
8 [label="PRCP <= 0.0185\ngini = 0.426\nsamples = 13\nvalue = [4, 9]"] ;
6 -> 8 ;
9 [label="TMIN <= 27.0\ngini = 0.4628\nsamples = 11\nvalue = [4, 7]"] ;
8 -> 9 ;
10 [label="Day <= 5.5\ngini = 0.2778\nsamples = 6\nvalue = [1, 5]"] ;
9 -> 10 ;
11 [label="gini = 0.0\nsamples = 5\nvalue = [0, 5]"] ;
10 -> 11 ;
12 [label="gini = 0.0\nsamples = 1\nvalue = [1, 0]"] ;
10 -> 12 ;
13 [label="TMAX <= 49.6667\ngini = 0.48\nsamples = 5\nvalue = [3, 2]"] ;
9 -> 13 ;
14 [label="gini = 0.0\nsamples = 1\nvalue = [1, 0]"] ;
13 -> 14 ;
15 [label="TMIN <= 27.8333\ngini = 0.5\nsamples = 4\nvalue = [2, 2]"] ;
13 -> 15 ;
16 [label="gini = 0.0\nsamples = 1\nvalue = [1, 0]"] ;
15 -> 16 ;
17 [label="TMIN <= 28.8333\ngini = 0.4444\nsamples = 3\nvalue = [1, 2]"] ;
15 -> 17 ;
18 [label="Day <= 5.5\ngini = 0.5\nsamples = 2\nvalue = [1, 1]"] ;
17 -> 18 ;
19 [label="gini = 0.0\nsamples = 1\nvalue = [0, 1]"] ;
18 -> 19 ;
20 [label="gini = 0.0\nsamples = 1\nvalue = [1, 0]"] ;
18 -> 20 ;
21 [label="gini = 0.0\nsamples = 1\nvalue = [0, 1]"] ;
17 -> 21 ;
22 [label="gini = 0.0\nsamples = 2\nvalue = [0, 2]"] ;
8 -> 22 ;
23 [label="gini = 0.0\nsamples = 3\nvalue = [0, 3]"] ;
5 -> 23 ;
24 [label="Loser/tie <= 17.5\ngini = 0.3166\nsamples = 71\nvalue = [57, 14]"] ;
4 -> 24 ;
25 [label="TMAX <= 51.3333\ngini = 0.3024\nsamples = 70\nvalue = [57, 13]"] ;
24 -> 25 ;
26 [label="Winner/tie <= 2.5\ngini = 0.0571\nsamples = 34\nvalue = [33, 1]"] ;
25 -> 26 ;
27 [label="gini = 0.0\nsamples = 18\nvalue = [18, 0]"] ;
26 -> 27 ;
28 [label="Loser/tie <= 0.5\ngini = 0.1172\nsamples = 16\nvalue = [15, 1]"] ;
26 -> 28 ;
29 [label="TMIN <= 40.1667\ngini = 0.5\nsamples = 2\nvalue = [1, 1]"] ;
28 -> 29 ;
30 [label="gini = 0.0\nsamples = 1\nvalue = [0, 1]"] ;
29 -> 30 ;
31 [label="gini = 0.0\nsamples = 1\nvalue = [1, 0]"] ;
29 -> 31 ;
32 [label="gini = 0.0\nsamples = 14\nvalue = [14, 0]"] ;
28 -> 32 ;
33 [label="TMAX <= 53.0\ngini = 0.4444\nsamples = 36\nvalue = [24, 12]"] ;
25 -> 33 ;
34 [label="gini = 0.0\nsamples = 4\nvalue = [0, 4]"] ;
33 -> 34 ;
35 [label="PRCP <= 0.0004\ngini = 0.375\nsamples = 32\nvalue = [24, 8]"] ;
33 -> 35 ;
36 [label="NflGame <= 0.5\ngini = 0.1975\nsamples = 18\nvalue = [16, 2]"] ;
35 -> 36 ;
37 [label="TMIN <= 33.3333\ngini = 0.4444\nsamples = 6\nvalue = [4, 2]"] ;
36 -> 37 ;
38 [label="TMAX <= 60.0\ngini = 0.32\nsamples = 5\nvalue = [4, 1]"] ;
37 -> 38 ;
39 [label="gini = 0.0\nsamples = 4\nvalue = [4, 0]"] ;
38 -> 39 ;
40 [label="gini = 0.0\nsamples = 1\nvalue = [0, 1]"] ;
38 -> 40 ;
41 [label="gini = 0.0\nsamples = 1\nvalue = [0, 1]"] ;
37 -> 41 ;
42 [label="gini = 0.0\nsamples = 12\nvalue = [12, 0]"] ;
36 -> 42 ;
43 [label="PRCP <= 0.0806\ngini = 0.4898\nsamples = 14\nvalue = [8, 6]"] ;
35 -> 43 ;
44 [label="TMAX <= 56.8333\ngini = 0.4082\nsamples = 7\nvalue = [2, 5]"] ;
43 -> 44 ;
45 [label="TMAX <= 55.5\ngini = 0.5\nsamples = 4\nvalue = [2, 2]"] ;
44 -> 45 ;
46 [label="gini = 0.0\nsamples = 2\nvalue = [0, 2]"] ;
45 -> 46 ;
47 [label="gini = 0.0\nsamples = 2\nvalue = [2, 0]"] ;
45 -> 47 ;
48 [label="gini = 0.0\nsamples = 3\nvalue = [0, 3]"] ;
44 -> 48 ;
49 [label="TMAX <= 55.5\ngini = 0.2449\nsamples = 7\nvalue = [6, 1]"] ;
43 -> 49 ;
50 [label="gini = 0.0\nsamples = 4\nvalue = [4, 0]"] ;
49 -> 50 ;
51 [label="TMIN <= 40.5\ngini = 0.4444\nsamples = 3\nvalue = [2, 1]"] ;
49 -> 51 ;
52 [label="gini = 0.0\nsamples = 1\nvalue = [0, 1]"] ;
51 -> 52 ;
53 [label="gini = 0.0\nsamples = 2\nvalue = [2, 0]"] ;
51 -> 53 ;
54 [label="gini = 0.0\nsamples = 1\nvalue = [0, 1]"] ;
24 -> 54 ;
55 [label="NflGame <= 0.5\ngini = 0.1327\nsamples = 28\nvalue = [2, 26]"] ;
3 -> 55 ;
56 [label="PRCP <= 0.7294\ngini = 0.4444\nsamples = 3\nvalue = [2, 1]"] ;
55 -> 56 ;
57 [label="gini = 0.0\nsamples = 1\nvalue = [0, 1]"] ;
56 -> 57 ;
58 [label="gini = 0.0\nsamples = 2\nvalue = [2, 0]"] ;
56 -> 58 ;
59 [label="gini = 0.0\nsamples = 25\nvalue = [0, 25]"] ;
55 -> 59 ;
60 [label="NflGame <= 0.5\ngini = 0.2659\nsamples = 171\nvalue = [144, 27]"] ;
2 -> 60 ;
61 [label="Day <= 3.5\ngini = 0.3227\nsamples = 89\nvalue = [71, 18]"] ;
60 -> 61 ;
62 [label="gini = 0.0\nsamples = 62\nvalue = [62, 0]"] ;
61 -> 62 ;
63 [label="PRCP <= 1.532\ngini = 0.4444\nsamples = 27\nvalue = [9, 18]"] ;
61 -> 63 ;
64 [label="TMIN <= 73.0\ngini = 0.426\nsamples = 26\nvalue = [8, 18]"] ;
63 -> 64 ;
65 [label="Day <= 5.5\ngini = 0.4032\nsamples = 25\nvalue = [7, 18]"] ;
64 -> 65 ;
66 [label="Day <= 4.5\ngini = 0.0997\nsamples = 19\nvalue = [1, 18]"] ;
65 -> 66 ;
67 [label="gini = 0.0\nsamples = 11\nvalue = [0, 11]"] ;
66 -> 67 ;
68 [label="PRCP <= 0.0095\ngini = 0.2188\nsamples = 8\nvalue = [1, 7]"] ;
66 -> 68 ;
69 [label="gini = 0.0\nsamples = 5\nvalue = [0, 5]"] ;
68 -> 69 ;
70 [label="TMIN <= 56.5\ngini = 0.4444\nsamples = 3\nvalue = [1, 2]"] ;
68 -> 70 ;
71 [label="gini = 0.0\nsamples = 1\nvalue = [0, 1]"] ;
70 -> 71 ;
72 [label="TMAX <= 86.8333\ngini = 0.5\nsamples = 2\nvalue = [1, 1]"] ;
70 -> 72 ;
73 [label="gini = 0.0\nsamples = 1\nvalue = [1, 0]"] ;
72 -> 73 ;
74 [label="gini = 0.0\nsamples = 1\nvalue = [0, 1]"] ;
72 -> 74 ;
75 [label="gini = 0.0\nsamples = 6\nvalue = [6, 0]"] ;
65 -> 75 ;
76 [label="gini = 0.0\nsamples = 1\nvalue = [1, 0]"] ;
64 -> 76 ;
77 [label="gini = 0.0\nsamples = 1\nvalue = [1, 0]"] ;
63 -> 77 ;
78 [label="Loser/tie <= 17.5\ngini = 0.1954\nsamples = 82\nvalue = [73, 9]"] ;
60 -> 78 ;
79 [label="Winner/tie <= 21.5\ngini = 0.182\nsamples = 79\nvalue = [71, 8]"] ;
78 -> 79 ;
80 [label="PRCP <= 0.0617\ngini = 0.1284\nsamples = 58\nvalue = [54, 4]"] ;
79 -> 80 ;
81 [label="TMAX <= 66.0\ngini = 0.0435\nsamples = 45\nvalue = [44, 1]"] ;
80 -> 81 ;
82 [label="Day <= 2.5\ngini = 0.5\nsamples = 2\nvalue = [1, 1]"] ;
81 -> 82 ;
83 [label="gini = 0.0\nsamples = 1\nvalue = [1, 0]"] ;
82 -> 83 ;
84 [label="gini = 0.0\nsamples = 1\nvalue = [0, 1]"] ;
82 -> 84 ;
85 [label="gini = 0.0\nsamples = 43\nvalue = [43, 0]"] ;
81 -> 85 ;
86 [label="TMAX <= 87.3333\ngini = 0.355\nsamples = 13\nvalue = [10, 3]"] ;
80 -> 86 ;
87 [label="gini = 0.0\nsamples = 10\nvalue = [10, 0]"] ;
86 -> 87 ;
88 [label="gini = 0.0\nsamples = 3\nvalue = [0, 3]"] ;
86 -> 88 ;
89 [label="Loser/tie <= 6.5\ngini = 0.3084\nsamples = 21\nvalue = [17, 4]"] ;
79 -> 89 ;
90 [label="gini = 0.0\nsamples = 6\nvalue = [6, 0]"] ;
89 -> 90 ;
91 [label="TMAX <= 88.3333\ngini = 0.3911\nsamples = 15\nvalue = [11, 4]"] ;
89 -> 91 ;
92 [label="gini = 0.0\nsamples = 11\nvalue = [11, 0]"] ;
91 -> 92 ;
93 [label="gini = 0.0\nsamples = 4\nvalue = [0, 4]"] ;
91 -> 93 ;
94 [label="Winner/tie <= 15.5\ngini = 0.4444\nsamples = 3\nvalue = [2, 1]"] ;
78 -> 94 ;
95 [label="gini = 0.0\nsamples = 2\nvalue = [2, 0]"] ;
94 -> 95 ;
96 [label="gini = 0.0\nsamples = 1\nvalue = [0, 1]"] ;
94 -> 96 ;
97 [label="PRCP <= 0.4422\ngini = 0.3367\nsamples = 126\nvalue = [99, 27]"] ;
1 -> 97 ;
98 [label="Loser/tie <= 30.5\ngini = 0.1446\nsamples = 102\nvalue = [94, 8]"] ;
97 -> 98 ;
99 [label="TMAX <= 88.3333\ngini = 0.1219\nsamples = 92\nvalue = [86, 6]"] ;
98 -> 99 ;
100 [label="TMIN <= 29.6667\ngini = 0.0444\nsamples = 88\nvalue = [86, 2]"] ;
99 -> 100 ;
101 [label="gini = 0.0\nsamples = 2\nvalue = [0, 2]"] ;
100 -> 101 ;
102 [label="gini = 0.0\nsamples = 86\nvalue = [86, 0]"] ;
100 -> 102 ;
103 [label="gini = 0.0\nsamples = 4\nvalue = [0, 4]"] ;
99 -> 103 ;
104 [label="Day <= 5.5\ngini = 0.32\nsamples = 10\nvalue = [8, 2]"] ;
98 -> 104 ;
105 [label="TMIN <= 34.1667\ngini = 0.5\nsamples = 2\nvalue = [1, 1]"] ;
104 -> 105 ;
106 [label="gini = 0.0\nsamples = 1\nvalue = [0, 1]"] ;
105 -> 106 ;
107 [label="gini = 0.0\nsamples = 1\nvalue = [1, 0]"] ;
105 -> 107 ;
108 [label="TMAX <= 88.3333\ngini = 0.2188\nsamples = 8\nvalue = [7, 1]"] ;
104 -> 108 ;
109 [label="gini = 0.0\nsamples = 7\nvalue = [7, 0]"] ;
108 -> 109 ;
110 [label="gini = 0.0\nsamples = 1\nvalue = [0, 1]"] ;
108 -> 110 ;
111 [label="Day <= 2.5\ngini = 0.3299\nsamples = 24\nvalue = [5, 19]"] ;
97 -> 111 ;
112 [label="gini = 0.0\nsamples = 5\nvalue = [5, 0]"] ;
111 -> 112 ;
113 [label="gini = 0.0\nsamples = 19\nvalue = [0, 19]"] ;
111 -> 113 ;
114 [label="Loser/tie <= 1.5\ngini = 0.1907\nsamples = 281\nvalue = [30, 251]"] ;
0 -> 114 [labeldistance=2.5, labelangle=-45, headlabel="False"] ;
115 [label="TMAX <= 91.5\ngini = 0.1135\nsamples = 265\nvalue = [16, 249]"] ;
114 -> 115 ;
116 [label="TMIN <= 28.0\ngini = 0.0947\nsamples = 261\nvalue = [13, 248]"] ;
115 -> 116 ;
117 [label="TMIN <= 26.3333\ngini = 0.3403\nsamples = 23\nvalue = [5, 18]"] ;
116 -> 117 ;
118 [label="gini = 0.0\nsamples = 18\nvalue = [0, 18]"] ;
117 -> 118 ;
119 [label="gini = 0.0\nsamples = 5\nvalue = [5, 0]"] ;
117 -> 119 ;
120 [label="TMIN <= 71.1667\ngini = 0.065\nsamples = 238\nvalue = [8, 230]"] ;
116 -> 120 ;
121 [label="TMIN <= 39.8333\ngini = 0.0576\nsamples = 236\nvalue = [7, 229]"] ;
120 -> 121 ;
122 [label="CfbLoser <= 65.5\ngini = 0.1214\nsamples = 77\nvalue = [5, 72]"] ;
121 -> 122 ;
123 [label="Day <= 1.5\ngini = 0.2975\nsamples = 22\nvalue = [4, 18]"] ;
122 -> 123 ;
124 [label="gini = 0.0\nsamples = 3\nvalue = [3, 0]"] ;
123 -> 124 ;
125 [label="PRCP <= 0.0055\ngini = 0.0997\nsamples = 19\nvalue = [1, 18]"] ;
123 -> 125 ;
126 [label="gini = 0.0\nsamples = 11\nvalue = [0, 11]"] ;
125 -> 126 ;
127 [label="TMAX <= 58.8333\ngini = 0.2188\nsamples = 8\nvalue = [1, 7]"] ;
125 -> 127 ;
128 [label="gini = 0.0\nsamples = 7\nvalue = [0, 7]"] ;
127 -> 128 ;
129 [label="gini = 0.0\nsamples = 1\nvalue = [1, 0]"] ;
127 -> 129 ;
130 [label="CfbWinner <= 43.5\ngini = 0.0357\nsamples = 55\nvalue = [1, 54]"] ;
122 -> 130 ;
131 [label="CfbTV <= 7.5\ngini = 0.1107\nsamples = 17\nvalue = [1, 16]"] ;
130 -> 131 ;
132 [label="gini = 0.0\nsamples = 8\nvalue = [0, 8]"] ;
131 -> 132 ;
133 [label="TMAX <= 60.8333\ngini = 0.1975\nsamples = 9\nvalue = [1, 8]"] ;
131 -> 133 ;
134 [label="gini = 0.0\nsamples = 5\nvalue = [0, 5]"] ;
133 -> 134 ;
135 [label="CfbWinner <= 35.0\ngini = 0.375\nsamples = 4\nvalue = [1, 3]"] ;
133 -> 135 ;
136 [label="gini = 0.0\nsamples = 3\nvalue = [0, 3]"] ;
135 -> 136 ;
137 [label="gini = 0.0\nsamples = 1\nvalue = [1, 0]"] ;
135 -> 137 ;
138 [label="gini = 0.0\nsamples = 38\nvalue = [0, 38]"] ;
130 -> 138 ;
139 [label="Day <= 2.0\ngini = 0.0248\nsamples = 159\nvalue = [2, 157]"] ;
121 -> 139 ;
140 [label="gini = 0.0\nsamples = 1\nvalue = [1, 0]"] ;
139 -> 140 ;
141 [label="CfbLoser <= 161.5\ngini = 0.0126\nsamples = 158\nvalue = [1, 157]"] ;
139 -> 141 ;
142 [label="gini = 0.0\nsamples = 119\nvalue = [0, 119]"] ;
141 -> 142 ;
143 [label="TMAX <= 89.5\ngini = 0.05\nsamples = 39\nvalue = [1, 38]"] ;
141 -> 143 ;
144 [label="gini = 0.0\nsamples = 34\nvalue = [0, 34]"] ;
143 -> 144 ;
145 [label="CfbWinner <= 22.5\ngini = 0.32\nsamples = 5\nvalue = [1, 4]"] ;
143 -> 145 ;
146 [label="gini = 0.0\nsamples = 1\nvalue = [1, 0]"] ;
145 -> 146 ;
147 [label="gini = 0.0\nsamples = 4\nvalue = [0, 4]"] ;
145 -> 147 ;
148 [label="Day <= 2.0\ngini = 0.5\nsamples = 2\nvalue = [1, 1]"] ;
120 -> 148 ;
149 [label="gini = 0.0\nsamples = 1\nvalue = [1, 0]"] ;
148 -> 149 ;
150 [label="gini = 0.0\nsamples = 1\nvalue = [0, 1]"] ;
148 -> 150 ;
151 [label="CfbLoser <= 107.0\ngini = 0.375\nsamples = 4\nvalue = [3, 1]"] ;
115 -> 151 ;
152 [label="gini = 0.0\nsamples = 2\nvalue = [2, 0]"] ;
151 -> 152 ;
153 [label="CfbWinner <= 113.5\ngini = 0.5\nsamples = 2\nvalue = [1, 1]"] ;
151 -> 153 ;
154 [label="gini = 0.0\nsamples = 1\nvalue = [1, 0]"] ;
153 -> 154 ;
155 [label="gini = 0.0\nsamples = 1\nvalue = [0, 1]"] ;
153 -> 155 ;
156 [label="Winner/tie <= 24.0\ngini = 0.2188\nsamples = 16\nvalue = [14, 2]"] ;
114 -> 156 ;
157 [label="gini = 0.0\nsamples = 13\nvalue = [13, 0]"] ;
156 -> 157 ;
158 [label="Day <= 4.0\ngini = 0.4444\nsamples = 3\nvalue = [1, 2]"] ;
156 -> 158 ;
159 [label="gini = 0.0\nsamples = 1\nvalue = [1, 0]"] ;
158 -> 159 ;
160 [label="gini = 0.0\nsamples = 2\nvalue = [0, 2]"] ;
158 -> 160 ;
}